<?xml version="1.0"?>
<opencv_storage>
<cascade>
  <stageType>BOOST</stageType>
  <featureType>HAAR</featureType>
  <height>24</height>
  <width>24</width>
  <stageParams>
    <boostType>GAB</boostType>
    <minHitRate>9.9500000476837158e-01</minHitRate>
    <maxFalseAlarm>5.0000000000000000e-01</maxFalseAlarm>
    <weightTrimRate>9.4999999999999996e-01</weightTrimRate>
    <maxDepth>1</maxDepth>
    <maxWeakCount>100</maxWeakCount></stageParams>
  <featureParams>
    <maxCatCount>0</maxCatCount>
    <featSize>1</featSize>
    <mode>BASIC</mode></featureParams>
  <stageNum>16</stageNum>
  <stages>
    <!-- stage 0 -->
    <_>
      <maxWeakCount>3</maxWeakCount>
      <stageThreshold>-1.0697275400161743e+00</stageThreshold>
      <weakClassifiers>
        <_>
          <internalNodes>
            0 -1 47 1.3840625062584877e-02</internalNodes>
          <leafValues>
            -9.0566039085388184e-01 8.9473682641983032e-01</leafValues></_>
        <_>
          <internalNodes>
            0 -1 10 -6.0600996017456055e-02</internalNodes>
          <leafValues>
            8.6147320270538330e-01 -8.5739588737487793e-01</leafValues></_>
        <_>
          <internalNodes>
            0 -1 36 -5.6105349212884903e-03</internalNodes>
          <leafValues>
            6.9332873821258545e-01 -9.5015364885330200e-01</leafValues></_></weakClassifiers></_>
    <!-- stage 1 -->
    <_>
      <maxWeakCount>4</maxWeakCount>
      <stageThreshold>-6.9216871261596680e-01</stageThreshold>
      <weakClassifiers>
        <_>
          <internalNodes>
            0 -1 6 -2.1157205104827881e-01</internalNodes>
          <leafValues>
            8.6363637447357178e-01 -8.5046726465225220e-01</leafValues></_>
        <_>
          <internalNodes>
            0 -1 23 -7.0425937883555889e-03</internalNodes>
          <leafValues>
            7.2233355045318604e-01 -8.1168717145919800e-01</leafValues></_>
        <_>
          <internalNodes>
            0 -1 12 2.2766625043004751e-03</internalNodes>
          <leafValues>
            -9.5100253820419312e-01 5.4871529340744019e-01</leafValues></_>
        <_>
          <internalNodes>
            0 -1 44 -3.8483893149532378e-05</internalNodes>
          <leafValues>
            -1. 4.2127040028572083e-01</leafValues></_></weakClassifiers></_>
    <!-- stage 2 -->
    <_>
      <maxWeakCount>4</maxWeakCount>
      <stageThreshold>-5.9696167707443237e-01</stageThreshold>
      <weakClassifiers>
        <_>
          <internalNodes>
            0 -1 13 -7.7406544005498290e-04</internalNodes>
          <leafValues>
            8.7692308425903320e-01 -8.3486241102218628e-01</leafValues></_>
        <_>
          <internalNodes>
            0 -1 25 2.2977314074523747e-04</internalNodes>
          <leafValues>
            -7.5731712579727173e-01 7.4099433422088623e-01</leafValues></_>
        <_>
          <internalNodes>
            0 -1 48 -2.4225962988566607e-04</internalNodes>
          <leafValues>
            -1. 4.8649510741233826e-01</leafValues></_>
        <_>
          <internalNodes>
            0 -1 4 -1.6350155419786461e-05</internalNodes>
          <leafValues>
            -8.9586877822875977e-01 5.0872272253036499e-01</leafValues></_></weakClassifiers></_>
    <!-- stage 3 -->
    <_>
      <maxWeakCount>3</maxWeakCount>
      <stageThreshold>-1.0182923078536987e+00</stageThreshold>
      <weakClassifiers>
        <_>
          <internalNodes>
            0 -1 46 4.2005516588687897e-02</internalNodes>
          <leafValues>
            -9.3684208393096924e-01 7.7777779102325439e-01</leafValues></_>
        <_>
          <internalNodes>
            0 -1 34 -1.2921587564051151e-02</internalNodes>
          <leafValues>
            8.0083662271499634e-01 -8.2319593429565430e-01</leafValues></_>
        <_>
          <internalNodes>
            0 -1 22 -5.6005634367465973e-02</internalNodes>
          <leafValues>
            7.4174576997756958e-01 -8.1406909227371216e-01</leafValues></_></weakClassifiers></_>
    <!-- stage 4 -->
    <_>
      <maxWeakCount>4</maxWeakCount>
      <stageThreshold>-5.7473689317703247e-01</stageThreshold>
      <weakClassifiers>
        <_>
          <internalNodes>
            0 -1 56 -7.2726875077933073e-04</internalNodes>
          <leafValues>
            7.5182479619979858e-01 -7.8431373834609985e-01</leafValues></_>
        <_>
          <internalNodes>
            0 -1 11 -5.8603860437870026e-02</internalNodes>
          <leafValues>
            6.3737893104553223e-01 -8.6064434051513672e-01</leafValues></_>
        <_>
          <internalNodes>
            0 -1 40 -1.1595409363508224e-02</internalNodes>
          <leafValues>
            5.1142370700836182e-01 -9.2533749341964722e-01</leafValues></_>
        <_>
          <internalNodes>
            0 -1 37 -3.8897921331226826e-03</internalNodes>
          <leafValues>
            5.5879747867584229e-01 -9.1967880725860596e-01</leafValues></_></weakClassifiers></_>
    <!-- stage 5 -->
    <_>
      <maxWeakCount>3</maxWeakCount>
      <stageThreshold>3.0390894412994385e-01</stageThreshold>
      <weakClassifiers>
        <_>
          <internalNodes>
            0 -1 31 -9.8106443881988525e-02</internalNodes>
          <leafValues>
            7.4626863002777100e-01 -7.3333334922790527e-01</leafValues></_>
        <_>
          <internalNodes>
            0 -1 1 -8.4597259759902954e-02</internalNodes>
          <leafValues>
            5.5128026008605957e-01 -9.6631854772567749e-01</leafValues></_>
        <_>
          <internalNodes>
            0 -1 43 4.3056946014985442e-04</internalNodes>
          <leafValues>
            5.2395886182785034e-01 -8.4420078992843628e-01</leafValues></_></weakClassifiers></_>
    <!-- stage 6 -->
    <_>
      <maxWeakCount>3</maxWeakCount>
      <stageThreshold>-3.5712435841560364e-02</stageThreshold>
      <weakClassifiers>
        <_>
          <internalNodes>
            0 -1 2 9.0259045828133821e-04</internalNodes>
          <leafValues>
            -8.2608693838119507e-01 6.7346936464309692e-01</leafValues></_>
        <_>
          <internalNodes>
            0 -1 52 -2.1875470702070743e-04</internalNodes>
          <leafValues>
            -1. 4.1856652498245239e-01</leafValues></_>
        <_>
          <internalNodes>
            0 -1 5 -1.4883422851562500e-01</internalNodes>
          <leafValues>
            -9.8514252901077271e-01 3.7180799245834351e-01</leafValues></_></weakClassifiers></_>
    <!-- stage 7 -->
    <_>
      <maxWeakCount>4</maxWeakCount>
      <stageThreshold>-7.3087203502655029e-01</stageThreshold>
      <weakClassifiers>
        <_>
          <internalNodes>
            0 -1 20 3.0199592583812773e-04</internalNodes>
          <leafValues>
            -8.4782606363296509e-01 6.8707484006881714e-01</leafValues></_>
        <_>
          <internalNodes>
            0 -1 7 -3.3453677315264940e-04</internalNodes>
          <leafValues>
            -9.8238641023635864e-01 5.0807571411132813e-01</leafValues></_>
        <_>
          <internalNodes>
            0 -1 27 -1.5250011347234249e-04</internalNodes>
          <leafValues>
            5.8138787746429443e-01 -8.4013622999191284e-01</leafValues></_>
        <_>
          <internalNodes>
            0 -1 0 1.4828442363068461e-04</internalNodes>
          <leafValues>
            4.4901451468467712e-01 -1.</leafValues></_></weakClassifiers></_>
    <!-- stage 8 -->
    <_>
      <maxWeakCount>4</maxWeakCount>
      <stageThreshold>-4.5589280128479004e-01</stageThreshold>
      <weakClassifiers>
        <_>
          <internalNodes>
            0 -1 47 1.3660524040460587e-02</internalNodes>
          <leafValues>
            -8.8888889551162720e-01 6.9127517938613892e-01</leafValues></_>
        <_>
          <internalNodes>
            0 -1 35 1.6861397773027420e-02</internalNodes>
          <leafValues>
            -7.7719658613204956e-01 6.6376036405563354e-01</leafValues></_>
        <_>
          <internalNodes>
            0 -1 33 1.2801561970263720e-03</internalNodes>
          <leafValues>
            -6.4666700363159180e-01 7.1761804819107056e-01</leafValues></_>
        <_>
          <internalNodes>
            0 -1 8 1.4255318092182279e-04</internalNodes>
          <leafValues>
            4.9531871080398560e-01 -9.4838231801986694e-01</leafValues></_></weakClassifiers></_>
    <!-- stage 9 -->
    <_>
      <maxWeakCount>6</maxWeakCount>
      <stageThreshold>-8.8057649135589600e-01</stageThreshold>
      <weakClassifiers>
        <_>
          <internalNodes>
            0 -1 55 2.0158067345619202e-03</internalNodes>
          <leafValues>
            -8.2608693838119507e-01 6.7346936464309692e-01</leafValues></_>
        <_>
          <internalNodes>
            0 -1 29 -3.7203360348939896e-02</internalNodes>
          <leafValues>
            5.4969829320907593e-01 -8.2745993137359619e-01</leafValues></_>
        <_>
          <internalNodes>
            0 -1 42 9.2078393208794296e-05</internalNodes>
          <leafValues>
            -7.7664172649383545e-01 5.7166135311126709e-01</leafValues></_>
        <_>
          <internalNodes>
            0 -1 26 -7.2064570849761367e-04</internalNodes>
          <leafValues>
            5.5007183551788330e-01 -8.3530128002166748e-01</leafValues></_>
        <_>
          <internalNodes>
            0 -1 24 -3.8167498132679611e-05</internalNodes>
          <leafValues>
            -9.7695130109786987e-01 4.0678262710571289e-01</leafValues></_>
        <_>
          <internalNodes>
            0 -1 45 4.9109238898381591e-04</internalNodes>
          <leafValues>
            -7.1104395389556885e-01 6.2982767820358276e-01</leafValues></_></weakClassifiers></_>
    <!-- stage 10 -->
    <_>
      <maxWeakCount>3</maxWeakCount>
      <stageThreshold>1.5523967146873474e-01</stageThreshold>
      <weakClassifiers>
        <_>
          <internalNodes>
            0 -1 53 4.6722842380404472e-03</internalNodes>
          <leafValues>
            -8.0645161867141724e-01 6.7123287916183472e-01</leafValues></_>
        <_>
          <internalNodes>
            0 -1 18 4.2068203911185265e-03</internalNodes>
          <leafValues>
            5.3570562601089478e-01 -9.8301506042480469e-01</leafValues></_>
        <_>
          <internalNodes>
            0 -1 16 9.2777336249127984e-05</internalNodes>
          <leafValues>
            4.6702188253402710e-01 -9.7484910488128662e-01</leafValues></_></weakClassifiers></_>
    <!-- stage 11 -->
    <_>
      <maxWeakCount>4</maxWeakCount>
      <stageThreshold>-7.5295615196228027e-01</stageThreshold>
      <weakClassifiers>
        <_>
          <internalNodes>
            0 -1 14 -1.8936574924737215e-03</internalNodes>
          <leafValues>
            7.5000000000000000e-01 -7.6699030399322510e-01</leafValues></_>
        <_>
          <internalNodes>
            0 -1 30 -4.4606951996684074e-03</internalNodes>
          <leafValues>
            -9.1563546657562256e-01 6.1999922990798950e-01</leafValues></_>
        <_>
          <internalNodes>
            0 -1 50 1.9754288950935006e-04</internalNodes>
          <leafValues>
            4.8573458194732666e-01 -9.8783558607101440e-01</leafValues></_>
        <_>
          <internalNodes>
            0 -1 9 1.7275512800551951e-04</internalNodes>
          <leafValues>
            4.4393503665924072e-01 -9.2595940828323364e-01</leafValues></_></weakClassifiers></_>
    <!-- stage 12 -->
    <_>
      <maxWeakCount>4</maxWeakCount>
      <stageThreshold>-6.2274146080017090e-01</stageThreshold>
      <weakClassifiers>
        <_>
          <internalNodes>
            0 -1 41 7.5550335168372840e-05</internalNodes>
          <leafValues>
            -9.2592591047286987e-01 6.2025314569473267e-01</leafValues></_>
        <_>
          <internalNodes>
            0 -1 39 -6.3320912420749664e-02</internalNodes>
          <leafValues>
            6.8159651756286621e-01 -8.5070401430130005e-01</leafValues></_>
        <_>
          <internalNodes>
            0 -1 28 -5.1790505647659302e-02</internalNodes>
          <leafValues>
            4.8940548300743103e-01 -8.5181438922882080e-01</leafValues></_>
        <_>
          <internalNodes>
            0 -1 3 -9.4274175353348255e-04</internalNodes>
          <leafValues>
            -1. 4.7340232133865356e-01</leafValues></_></weakClassifiers></_>
    <!-- stage 13 -->
    <_>
      <maxWeakCount>4</maxWeakCount>
      <stageThreshold>-6.8459844589233398e-01</stageThreshold>
      <weakClassifiers>
        <_>
          <internalNodes>
            0 -1 54 -1.0061939246952534e-04</internalNodes>
          <leafValues>
            -9.1208791732788086e-01 7.1621620655059814e-01</leafValues></_>
        <_>
          <internalNodes>
            0 -1 17 1.4229530643206090e-04</internalNodes>
          <leafValues>
            -8.7959468364715576e-01 6.1579394340515137e-01</leafValues></_>
        <_>
          <internalNodes>
            0 -1 49 1.0520350770093501e-04</internalNodes>
          <leafValues>
            4.5634886622428894e-01 -9.5978623628616333e-01</leafValues></_>
        <_>
          <internalNodes>
            0 -1 19 3.8268272764980793e-03</internalNodes>
          <leafValues>
            6.5073531866073608e-01 -8.3605092763900757e-01</leafValues></_></weakClassifiers></_>
    <!-- stage 14 -->
    <_>
      <maxWeakCount>2</maxWeakCount>
      <stageThreshold>-5.6193795055150986e-02</stageThreshold>
      <weakClassifiers>
        <_>
          <internalNodes>
            0 -1 15 -2.8878645971417427e-03</internalNodes>
          <leafValues>
            9.3442624807357788e-01 -7.7777779102325439e-01</leafValues></_>
        <_>
          <internalNodes>
            0 -1 38 1.1645875929389149e-04</internalNodes>
          <leafValues>
            7.2158396244049072e-01 -9.6642917394638062e-01</leafValues></_></weakClassifiers></_>
    <!-- stage 15 -->
    <_>
      <maxWeakCount>3</maxWeakCount>
      <stageThreshold>-7.4277174472808838e-01</stageThreshold>
      <weakClassifiers>
        <_>
          <internalNodes>
            0 -1 21 -3.5078456858173013e-04</internalNodes>
          <leafValues>
            1. -9.2857140302658081e-01</leafValues></_>
        <_>
          <internalNodes>
            0 -1 51 -1.3553940516430885e-04</internalNodes>
          <leafValues>
            1. -8.1420028209686279e-01</leafValues></_>
        <_>
          <internalNodes>
            0 -1 32 3.8744518533349037e-03</internalNodes>
          <leafValues>
            -7.8436857461929321e-01 1.</leafValues></_></weakClassifiers></_></stages>
  <features>
    <_>
      <rects>
        <_>
          0 0 4 6 -1.</_>
        <_>
          0 0 2 3 2.</_>
        <_>
          2 3 2 3 2.</_></rects>
      <tilted>0</tilted></_>
    <_>
      <rects>
        <_>
          0 0 24 13 -1.</_>
        <_>
          8 0 8 13 3.</_></rects>
      <tilted>0</tilted></_>
    <_>
      <rects>
        <_>
          0 0 20 2 -1.</_>
        <_>
          0 0 10 1 2.</_>
        <_>
          10 1 10 1 2.</_></rects>
      <tilted>0</tilted></_>
    <_>
      <rects>
        <_>
          0 0 11 2 -1.</_>
        <_>
          0 1 11 1 2.</_></rects>
      <tilted>0</tilted></_>
    <_>
      <rects>
        <_>
          0 1 8 4 -1.</_>
        <_>
          0 1 4 2 2.</_>
        <_>
          4 3 4 2 2.</_></rects>
      <tilted>0</tilted></_>
    <_>
      <rects>
        <_>
          0 2 14 12 -1.</_>
        <_>
          7 2 7 12 2.</_></rects>
      <tilted>0</tilted></_>
    <_>
      <rects>
        <_>
          0 4 13 18 -1.</_>
        <_>
          0 13 13 9 2.</_></rects>
      <tilted>0</tilted></_>
    <_>
      <rects>
        <_>
          0 5 1 18 -1.</_>
        <_>
          0 11 1 6 3.</_></rects>
      <tilted>0</tilted></_>
    <_>
      <rects>
        <_>
          0 5 3 3 -1.</_>
        <_>
          0 6 3 1 3.</_></rects>
      <tilted>0</tilted></_>
    <_>
      <rects>
        <_>
          0 6 1 9 -1.</_>
        <_>
          0 9 1 3 3.</_></rects>
      <tilted>0</tilted></_>
    <_>
      <rects>
        <_>
          0 8 10 15 -1.</_>
        <_>
          5 8 5 15 2.</_></rects>
      <tilted>0</tilted></_>
    <_>
      <rects>
        <_>
          0 10 10 14 -1.</_>
        <_>
          5 10 5 14 2.</_></rects>
      <tilted>0</tilted></_>
    <_>
      <rects>
        <_>
          0 12 6 12 -1.</_>
        <_>
          0 12 3 6 2.</_>
        <_>
          3 18 3 6 2.</_></rects>
      <tilted>0</tilted></_>
    <_>
      <rects>
        <_>
          0 16 1 3 -1.</_>
        <_>
          0 17 1 1 3.</_></rects>
      <tilted>0</tilted></_>
    <_>
      <rects>
        <_>
          0 16 2 3 -1.</_>
        <_>
          0 17 2 1 3.</_></rects>
      <tilted>0</tilted></_>
    <_>
      <rects>
        <_>
          0 16 4 3 -1.</_>
        <_>
          0 17 4 1 3.</_></rects>
      <tilted>0</tilted></_>
    <_>
      <rects>
        <_>
          0 18 2 3 -1.</_>
        <_>
          0 19 2 1 3.</_></rects>
      <tilted>0</tilted></_>
    <_>
      <rects>
        <_>
          1 0 6 1 -1.</_>
        <_>
          3 0 2 1 3.</_></rects>
      <tilted>0</tilted></_>
    <_>
      <rects>
        <_>
          1 0 8 6 -1.</_>
        <_>
          1 0 4 3 2.</_>
        <_>
          5 3 4 3 2.</_></rects>
      <tilted>0</tilted></_>
    <_>
      <rects>
        <_>
          1 0 7 9 -1.</_>
        <_>
          1 3 7 3 3.</_></rects>
      <tilted>0</tilted></_>
    <_>
      <rects>
        <_>
          1 2 16 2 -1.</_>
        <_>
          1 2 8 1 2.</_>
        <_>
          9 3 8 1 2.</_></rects>
      <tilted>0</tilted></_>
    <_>
      <rects>
        <_>
          1 3 2 6 -1.</_>
        <_>
          1 6 2 3 2.</_></rects>
      <tilted>0</tilted></_>
    <_>
      <rects>
        <_>
          1 12 11 12 -1.</_>
        <_>
          1 16 11 4 3.</_></rects>
      <tilted>0</tilted></_>
    <_>
      <rects>
        <_>
          1 19 8 2 -1.</_>
        <_>
          5 19 4 2 2.</_></rects>
      <tilted>0</tilted></_>
    <_>
      <rects>
        <_>
          1 21 1 3 -1.</_>
        <_>
          1 22 1 1 3.</_></rects>
      <tilted>0</tilted></_>
    <_>
      <rects>
        <_>
          2 0 8 2 -1.</_>
        <_>
          2 0 4 1 2.</_>
        <_>
          6 1 4 1 2.</_></rects>
      <tilted>0</tilted></_>
    <_>
      <rects>
        <_>
          2 2 1 10 -1.</_>
        <_>
          2 7 1 5 2.</_></rects>
      <tilted>0</tilted></_>
    <_>
      <rects>
        <_>
          2 5 2 4 -1.</_>
        <_>
          2 7 2 2 2.</_></rects>
      <tilted>0</tilted></_>
    <_>
      <rects>
        <_>
          2 5 18 19 -1.</_>
        <_>
          11 5 9 19 2.</_></rects>
      <tilted>0</tilted></_>
    <_>
      <rects>
        <_>
          2 6 12 6 -1.</_>
        <_>
          8 6 6 6 2.</_></rects>
      <tilted>0</tilted></_>
    <_>
      <rects>
        <_>
          2 9 22 10 -1.</_>
        <_>
          13 9 11 10 2.</_></rects>
      <tilted>0</tilted></_>
    <_>
      <rects>
        <_>
          2 10 20 8 -1.</_>
        <_>
          2 14 20 4 2.</_></rects>
      <tilted>0</tilted></_>
    <_>
      <rects>
        <_>
          3 0 9 10 -1.</_>
        <_>
          6 0 3 10 3.</_></rects>
      <tilted>0</tilted></_>
    <_>
      <rects>
        <_>
          3 8 9 1 -1.</_>
        <_>
          6 8 3 1 3.</_></rects>
      <tilted>0</tilted></_>
    <_>
      <rects>
        <_>
          4 6 6 6 -1.</_>
        <_>
          7 6 3 6 2.</_></rects>
      <tilted>0</tilted></_>
    <_>
      <rects>
        <_>
          5 0 9 9 -1.</_>
        <_>
          5 3 9 3 3.</_></rects>
      <tilted>0</tilted></_>
    <_>
      <rects>
        <_>
          7 5 3 6 -1.</_>
        <_>
          7 8 3 3 2.</_></rects>
      <tilted>0</tilted></_>
    <_>
      <rects>
        <_>
          7 6 4 4 -1.</_>
        <_>
          7 8 4 2 2.</_></rects>
      <tilted>0</tilted></_>
    <_>
      <rects>
        <_>
          7 21 14 2 -1.</_>
        <_>
          7 21 7 1 2.</_>
        <_>
          14 22 7 1 2.</_></rects>
      <tilted>0</tilted></_>
    <_>
      <rects>
        <_>
          8 2 10 10 -1.</_>
        <_>
          8 7 10 5 2.</_></rects>
      <tilted>0</tilted></_>
    <_>
      <rects>
        <_>
          8 13 15 8 -1.</_>
        <_>
          13 13 5 8 3.</_></rects>
      <tilted>0</tilted></_>
    <_>
      <rects>
        <_>
          13 0 4 3 -1.</_>
        <_>
          13 1 4 1 3.</_></rects>
      <tilted>0</tilted></_>
    <_>
      <rects>
        <_>
          14 0 2 2 -1.</_>
        <_>
          14 1 2 1 2.</_></rects>
      <tilted>0</tilted></_>
    <_>
      <rects>
        <_>
          14 0 5 3 -1.</_>
        <_>
          14 1 5 1 3.</_></rects>
      <tilted>0</tilted></_>
    <_>
      <rects>
        <_>
          14 0 6 3 -1.</_>
        <_>
          14 1 6 1 3.</_></rects>
      <tilted>0</tilted></_>
    <_>
      <rects>
        <_>
          14 7 3 5 -1.</_>
        <_>
          15 7 1 5 3.</_></rects>
      <tilted>0</tilted></_>
    <_>
      <rects>
        <_>
          14 13 10 10 -1.</_>
        <_>
          19 13 5 10 2.</_></rects>
      <tilted>0</tilted></_>
    <_>
      <rects>
        <_>
          14 19 10 2 -1.</_>
        <_>
          19 19 5 2 2.</_></rects>
      <tilted>0</tilted></_>
    <_>
      <rects>
        <_>
          17 16 3 8 -1.</_>
        <_>
          17 20 3 4 2.</_></rects>
      <tilted>0</tilted></_>
    <_>
      <rects>
        <_>
          18 1 3 2 -1.</_>
        <_>
          18 2 3 1 2.</_></rects>
      <tilted>0</tilted></_>
    <_>
      <rects>
        <_>
          18 2 6 2 -1.</_>
        <_>
          18 3 6 1 2.</_></rects>
      <tilted>0</tilted></_>
    <_>
      <rects>
        <_>
          20 8 2 6 -1.</_>
        <_>
          20 11 2 3 2.</_></rects>
      <tilted>0</tilted></_>
    <_>
      <rects>
        <_>
          22 18 2 6 -1.</_>
        <_>
          22 21 2 3 2.</_></rects>
      <tilted>0</tilted></_>
    <_>
      <rects>
        <_>
          23 3 1 21 -1.</_>
        <_>
          23 10 1 7 3.</_></rects>
      <tilted>0</tilted></_>
    <_>
      <rects>
        <_>
          23 6 1 6 -1.</_>
        <_>
          23 8 1 2 3.</_></rects>
      <tilted>0</tilted></_>
    <_>
      <rects>
        <_>
          23 11 1 9 -1.</_>
        <_>
          23 14 1 3 3.</_></rects>
      <tilted>0</tilted></_>
    <_>
      <rects>
        <_>
          23 16 1 2 -1.</_>
        <_>
          23 17 1 1 2.</_></rects>
      <tilted>0</tilted></_></features></cascade>
</opencv_storage>
